{
  "net.0.weight": [
    [
      0.026157522574067116,
      -0.009206170216202736,
      -0.5758956670761108,
      -0.5039476156234741,
      -0.1607361137866974,
      -0.20176149904727936,
      -0.42467835545539856,
      0.22801338136196136,
      -0.3150801956653595,
      0.3650835156440735,
      0.4735289514064789,
      0.09313946962356567,
      0.3220650553703308,
      0.25157737731933594,
      0.4213702082633972,
      0.16659508645534515,
      0.5158817768096924,
      -0.20984037220478058,
      -0.03585945442318916,
      0.5430957078933716,
      0.2900596857070923,
      -0.24004074931144714,
      -0.37993717193603516,
      0.25476300716400146,
      -0.5341188907623291,
      -0.5688262581825256,
      0.5245382785797119,
      -0.6175026297569275,
      -0.3457939326763153,
      -0.34952443838119507,
      0.1444728523492813,
      -0.11707539856433868
    ],
    [
      0.3605390191078186,
      0.5068529844284058,
      -0.3618415296077728,
      -0.24369199573993683,
      0.20770283043384552,
      0.38965925574302673,
      0.4997245967388153,
      -0.22240787744522095,
      0.025933247059583664,
      -0.21858377754688263,
      0.163643017411232,
      0.2498190850019455,
      0.3181763291358948,
      -0.3216681480407715,
      -0.17125080525875092,
      0.3109986484050751,
      0.19428949058055878,
      -0.1780257225036621,
      0.3077102303504944,
      -0.5757420063018799,
      0.15232253074645996,
      -0.2915495038032532,
      0.0024348516017198563,
      0.3898773193359375,
      -0.22961178421974182,
      -0.454061895608902,
      -0.5787378549575806,
      -0.4200552701950073,
      0.07795524597167969,
      0.13317005336284637,
      -0.038054998964071274,
      -0.15498554706573486
    ],
    [
      -0.5896844267845154,
      0.00010757017298601568,
      -0.27282869815826416,
      0.4151693284511566,
      0.5904903411865234,
      -0.3818739652633667,
      0.44986918568611145,
      -0.459895521402359,
      0.5796381831169128,
      0.1513678878545761,
      -0.5682618618011475,
      0.6639289259910583,
      0.5943445563316345,
      -0.6390292644500732,
      -0.3832435607910156,
      0.6112622022628784,
      -0.7076866626739502,
      -0.3734501600265503,
      -0.40176665782928467,
      -0.22861693799495697,
      -0.5089330673217773,
      -0.42490217089653015,
      0.5224172472953796,
      0.6038833856582642,
      0.5582151412963867,
      -0.12259183079004288,
      -0.23788835108280182,
      -0.1600012481212616,
      0.38805457949638367,
      -0.06363589316606522,
      0.5315665602684021,
      -0.6259297728538513
    ],
    [
      -0.8517225980758667,
      0.19356468319892883,
      -0.05651877075433731,
      0.7742838263511658,
      0.35223188996315,
      -0.48945340514183044,
      0.7680100202560425,
      -0.3590987026691437,
      0.9731431603431702,
      -0.11157664656639099,
      -0.34419646859169006,
      1.0207464694976807,
      1.2453927993774414,
      -0.2300180196762085,
      -0.48048070073127747,
      0.9232494831085205,
      -0.643307626247406,
      -0.6440596580505371,
      -0.3613961637020111,
      -0.2611370086669922,
      0.7813549637794495,
      -0.8560510277748108,
      0.5876922607421875,
      1.2418729066848755,
      0.553280770778656,
      0.33874207735061646,
      -0.436326801776886,
      0.07906481623649597,
      0.5598759055137634,
      0.038548070937395096,
      0.9655860662460327,
      -0.5313951373100281
    ],
    [
      0.07809841632843018,
      -0.07646913081407547,
      -0.12842445075511932,
      -0.7024022936820984,
      -0.9610233902931213,
      -0.27343621850013733,
      -0.649792492389679,
      0.6402000784873962,
      -0.43984541296958923,
      -0.15015855431556702,
      1.0109784603118896,
      -0.5593937635421753,
      0.07442250847816467,
      1.1189953088760376,
      0.7181872129440308,
      -0.5898173451423645,
      1.0383493900299072,
      -0.11855770647525787,
      0.01815193146467209,
      0.6679497361183167,
      -1.0359383821487427,
      -0.0997406467795372,
      -0.7334704995155334,
      0.08929244428873062,
      -1.0007349252700806,
      -0.13463181257247925,
      0.541968584060669,
      -0.4922485947608948,
      -0.5015093684196472,
      0.09152180701494217,
      -0.09378094226121902,
      0.7352786064147949
    ],
    [
      0.7580050826072693,
      0.5594322681427002,
      0.8213269114494324,
      0.6742758750915527,
      0.24458695948123932,
      0.23777718842029572,
      0.32547345757484436,
      -0.09800466150045395,
      0.3083043694496155,
      -0.3434050977230072,
      0.22143088281154633,
      0.12355509400367737,
      -0.4470285177230835,
      -0.2387140691280365,
      -0.0711095854640007,
      0.002545468509197235,
      0.6210295557975769,
      0.07415657490491867,
      1.0453983545303345,
      0.3185955584049225,
      -0.3934936821460724,
      0.4744338393211365,
      0.24951386451721191,
      0.13366669416427612,
      -0.006875846069306135,
      0.30259108543395996,
      0.2366219162940979,
      0.7270038723945618,
      0.3713275194168091,
      -0.11068298667669296,
      0.19299331307411194,
      0.7332982420921326
    ]
  ],
  "net.1.weight": [
    [
      -0.3921816051006317,
      -0.4193161725997925,
      -0.5263038873672485
    ],
    [
      0.009653345681726933,
      -0.030041750520467758,
      -0.3364362418651581
    ],
    [
      -0.28075337409973145,
      -0.3304060995578766,
      -0.3429286777973175
    ],
    [
      -0.26425397396087646,
      -0.36328253149986267,
      -0.48763346672058105
    ],
    [
      -0.3259343206882477,
      -0.2901151776313782,
      -0.4365314841270447
    ],
    [
      -0.10198554396629333,
      -0.16119369864463806,
      -0.11844046413898468
    ],
    [
      -0.27948614954948425,
      -0.23335598409175873,
      -0.23870983719825745
    ],
    [
      -0.28945013880729675,
      -0.1296577751636505,
      -0.15809157490730286
    ],
    [
      -0.21626882255077362,
      -0.2934909462928772,
      -0.31238511204719543
    ],
    [
      -0.10642550140619278,
      -0.022099662572145462,
      -0.20395852625370026
    ],
    [
      -0.45816129446029663,
      -0.265313059091568,
      -0.39509493112564087
    ],
    [
      -0.43242835998535156,
      -0.4210767149925232,
      -0.3873451054096222
    ],
    [
      -0.46358782052993774,
      -0.26179179549217224,
      -0.24607868492603302
    ],
    [
      -0.19852903485298157,
      -0.4109596014022827,
      -0.25198882818222046
    ],
    [
      -0.45970192551612854,
      -0.4910176694393158,
      -0.461381733417511
    ],
    [
      -0.11264657229185104,
      -0.19201011955738068,
      -0.44653305411338806
    ],
    [
      -0.24178633093833923,
      -0.29371708631515503,
      -0.5101895928382874
    ],
    [
      -0.1864706128835678,
      -0.01973845809698105,
      -0.14887045323848724
    ],
    [
      -0.2126801759004593,
      -0.3148040771484375,
      -0.5223177075386047
    ],
    [
      -0.2999449670314789,
      -0.27435019612312317,
      -0.4371388852596283
    ],
    [
      0.3284059762954712,
      0.4323354959487915,
      0.5906091928482056
    ],
    [
      -0.3388781249523163,
      -0.46744224429130554,
      -0.5127723813056946
    ],
    [
      -0.20261776447296143,
      -0.16615907847881317,
      -0.3511473834514618
    ],
    [
      -0.25655028223991394,
      -0.42091432213783264,
      -0.32691341638565063
    ],
    [
      -0.35397785902023315,
      -0.3313070237636566,
      -0.32300490140914917
    ],
    [
      -0.1963481903076172,
      -0.20164121687412262,
      -0.31597989797592163
    ],
    [
      -0.12408588081598282,
      -0.36356040835380554,
      -0.41453441977500916
    ],
    [
      -0.2952459156513214,
      -0.20561645925045013,
      -0.13237127661705017
    ],
    [
      -0.11302173137664795,
      -0.03817373514175415,
      -0.1905490607023239
    ],
    [
      0.09286034107208252,
      -0.11654016375541687,
      0.07899045199155807
    ],
    [
      -0.17270633578300476,
      -0.3367324471473694,
      -0.37853872776031494
    ],
    [
      -0.22051282227039337,
      -0.2702037990093231,
      -0.25155016779899597
    ]
  ]
}